{
    "n_layer": 4,
    "layers": [
        {
            "weight": [
                [
                    0.9721083568944197,
                    -0.5577094071018339,
                    1.1074959610979218,
                    -0.6536033182888343
                ],
                [
                    -1.5974856582952621,
                    0.39772611911296313,
                    1.2058654248762246,
                    1.0562991086975113
                ],
                [
                    0.8075037611076497,
                    0.655606301766063,
                    -0.18642272739348767,
                    -0.48265512264767707
                ],
                [
                    -0.840071629674116,
                    1.1805831155367026,
                    -1.328840840659172,
                    -0.12439674584193096
                ],
                [
                    -0.4974813960907152,
                    -1.947123348535036,
                    -1.848654976735113,
                    0.26466031364500936
                ],
                [
                    0.9302375596678935,
                    -1.1738918713950663,
                    0.7776932446567291,
                    -1.0792072777179749
                ],
                [
                    -1.9819269604536358,
                    -1.193871739541247,
                    0.16862644397097895,
                    -2.0986129279230967
                ],
                [
                    0.019155324040148837,
                    0.302185712955141,
                    -0.9603824204205015,
                    1.5917630936436629
                ],
                [
                    0.35233314798808457,
                    -0.6519459002508402,
                    -1.1620016396375177,
                    -2.2830375734590547
                ],
                [
                    -0.6697333096529313,
                    -0.2812180222396537,
                    1.4066434467116726,
                    -0.1644154107081713
                ]
            ],
            "bias": [
                [
                    -0.13732465235442484
                ],
                [
                    -1.380935454138983
                ],
                [
                    -0.20028594649064724
                ],
                [
                    -0.10417044671166945
                ],
                [
                    0.08445266697675384
                ],
                [
                    0.7679280391130573
                ],
                [
                    -1.5749049539587137
                ],
                [
                    -1.4153688867728158
                ],
                [
                    0.9306458372680252
                ],
                [
                    0.39035644428399313
                ]
            ],
            "activation": "ReLU"
        },
        {
            "weight": [
                [
                    0.9124286273168932,
                    -0.603541972727988,
                    1.2013590544504724,
                    -0.6014001361978715,
                    -1.5974856582952621,
                    0.40904976848501534,
                    1.2058654248762246,
                    1.0562991086975113,
                    0.8525439091183137,
                    0.6576092251878127
                ],
                [
                    -0.2247370622862153,
                    -0.5221821676937642,
                    -0.840071629674116,
                    1.1805831155367026,
                    -1.328840840659172,
                    -0.12439674584193096,
                    -0.4974813960907152,
                    -1.947123348535036,
                    -1.848654976735113,
                    0.26466031364500936
                ],
                [
                    0.9346608151044918,
                    -1.1699643236920894,
                    0.7342747406819692,
                    -1.1121546357151053,
                    -1.9819269604536358,
                    -1.1959041968414865,
                    0.16862644397097895,
                    -2.0986129279230967,
                    0.019155324040148837,
                    0.3066513957726504
                ],
                [
                    -0.9603824204205015,
                    1.5917630936436629,
                    0.35233314798808457,
                    -0.6519459002508402,
                    -1.1620016396375177,
                    -2.2830375734590547,
                    -0.6627352218440874,
                    -0.27412048233046915,
                    1.3757662361032825,
                    -0.1902331292568823
                ],
                [
                    -0.14997874151857404,
                    -1.380935454138983,
                    -0.19942784151648962,
                    -0.10417044671166945,
                    0.08445266697675384,
                    0.7691604065861674,
                    -1.5749049539587137,
                    -1.4153688867728158,
                    0.9306458372680252,
                    0.41561036376760824
                ],
                [
                    1.4188248369434453,
                    -2.4687563936827264,
                    0.2655977720041882,
                    -1.2184110735790872,
                    -0.7409264350425488,
                    1.0818418993467083,
                    -0.7141702125894377,
                    1.854731420514446,
                    1.5245991263175427,
                    -1.8457742466401978
                ],
                [
                    -0.6332797569685905,
                    0.13007630048675545,
                    1.7159833726204339,
                    -0.7012101001586905,
                    0.13190869129081376,
                    -1.7053373652864479,
                    -2.105754583746702,
                    0.7351219284321453,
                    -0.6705979506591249,
                    -0.1509659714434681
                ],
                [
                    -0.19108451825316414,
                    -0.15787654553379232,
                    1.4316839757707551,
                    -0.42211076543545384,
                    0.7919749715998721,
                    1.4488123194324591,
                    0.8749181032687386,
                    -1.1741661364629827,
                    0.6035952552954191,
                    -0.7681599083971573
                ],
                [
                    1.437039160408853,
                    1.5948743831892966,
                    0.3756182470240541,
                    1.8983502569964217,
                    1.7838521237296894,
                    1.435214354730339,
                    0.7938050090610411,
                    -0.4265567380740088,
                    -1.4818283578890972,
                    0.3796514700006441
                ],
                [
                    0.18583888839327514,
                    0.9347607785332337,
                    -0.15284656062222968,
                    0.8998782579753757,
                    2.1205238718922974,
                    0.918345098582134,
                    0.05341478393221691,
                    0.15107901305666568,
                    -1.4924997200886925,
                    -0.31083559305360436
                ]
            ],
            "bias": [
                [
                    -0.3221774434977849
                ],
                [
                    0.533684142325622
                ],
                [
                    0.2661342452759603
                ],
                [
                    -0.6291817302442638
                ],
                [
                    -0.11183726748476648
                ],
                [
                    -0.28397971331473854
                ],
                [
                    0.9602807289469935
                ],
                [
                    -0.17635210914463892
                ],
                [
                    1.6572907915776862
                ],
                [
                    -0.5078490725364658
                ]
            ],
            "activation": "ReLU"
        },
        {
            "weight": [
                [
                    0.9193499827121587,
                    -0.603541972727988,
                    1.1633878349466915,
                    -0.6014001361978715,
                    -1.5989801396846715,
                    0.407770958713987,
                    1.2087353021696479,
                    1.0702216215434783,
                    0.8567475654825102,
                    0.690535524399039
                ],
                [
                    -0.2186041966632684,
                    -0.5221821676937642,
                    -0.8394453610409717,
                    1.1805831155367026,
                    -1.3316467461072516,
                    -0.10412078698033182,
                    -0.4937608132323871,
                    -1.9194743260649385,
                    -1.8410660249526454,
                    0.2674397885241793
                ],
                [
                    0.9437447966660354,
                    -1.1699643236920894,
                    0.7406558488346433,
                    -1.1121546357151053,
                    -1.9864838966920375,
                    -1.1628496005004387,
                    0.17508285933396783,
                    -2.055780818490795,
                    0.03004390887388886,
                    0.306208271753834
                ],
                [
                    -0.977508561486268,
                    1.5917630936436629,
                    0.3489078026370995,
                    -0.6519459002508402,
                    -1.1548864696894803,
                    -2.3330461080153535,
                    -0.6741778143528382,
                    -0.3427064029919626,
                    1.3557904697412724,
                    -0.19657918404837396
                ],
                [
                    -0.1408654085297731,
                    -1.380935454138983,
                    -0.18197747240986153,
                    -0.10417044671166945,
                    0.07678766583068405,
                    0.8263365994924164,
                    -1.5633137899238663,
                    -1.3429308284716948,
                    0.9502033099422346,
                    0.4026309896348506
                ]
            ],
            "bias": [
                [
                    1.4230173126867676
                ],
                [
                    -2.4668355109710034
                ],
                [
                    0.20236988761590213
                ],
                [
                    -1.2233139328149998
                ],
                [
                    -0.735801154384532
                ]
            ],
            "activation": "Linear"
        },
        {
            "weight": [
                [
                    0.9155070985480956,
                    -0.603541972727988,
                    1.1622951672082185,
                    -0.6014001361978715,
                    -1.5974856582952621
                ],
                [
                    0.39772611911296313,
                    1.2058654248762246,
                    1.0562991086975113,
                    0.8525439091183137,
                    0.6893914144775047
                ],
                [
                    -0.3578513778152417,
                    -0.3702554636429837,
                    -0.7054894946922067,
                    1.2860107435608192,
                    -1.279677253596445
                ]
            ],
            "bias": [
                [
                    -0.12439674584193096
                ],
                [
                    -0.4974813960907152
                ],
                [
                    -1.9510874236904585
                ]
            ],
            "activation": "Sigmoid"
        }
    ],
    "learning_rate": 0.001,
    "error_threshold": 0.01,
    "max_iter": 2000,
    "batch_size": 5
}